GCD Test
Bias: 5000.000000
IV_34341_024_PSS_HM_XX_DIODE_Biased_Box
Date/Time: 7/22/2021 2:07:20 PM
Sensor Name: DIODE
Type: P
Annealing Status: Not Irradiated
Environment: 20C
Tester: Andrew Kent

Time Delay per Ramp Step (s): 0.500

CV Time Delay per Measurement (s) :0.500

AC Voltage (V): 0.500

Current Number of measurements per voltage: 1.000

IV Time Delay per Measurement (s) :0.000


BiasVoltage	Total Current_Avg	Total Current_0	Bias Current_Avg	Bias Current_0	Temperature	Air_Temp	Humidity	Dewpoint	
   -5.0000	 1.7970E-8	 1.7970E-8	-2.457783E-11	-2.457783E-11	   20.0862	   20.4922	   57.4855	   11.8153	
  -10.0000	 1.7010E-8	 1.7010E-8	1.082326E-10	1.082326E-10	   20.0631	   20.5069	   57.4769	   11.8268	
  -15.0000	 1.6660E-8	 1.6660E-8	1.979005E-10	1.979005E-10	   20.0425	   20.5284	   57.4602	   11.8424	
  -20.0000	 1.5480E-8	 1.5480E-8	2.074220E-10	2.074220E-10	   20.0116	   20.5129	   57.4472	   11.8245	
  -25.0000	 1.3960E-8	 1.3960E-8	1.593152E-10	1.593152E-10	   19.9704	   20.5129	   57.4399	   11.8245	
  -30.0000	 1.2900E-8	 1.2900E-8	-3.381932E-11	-3.381932E-11	   19.9704	   20.5129	   57.4399	   11.8226	
  -35.0000	 1.1630E-8	 1.1630E-8	-9.797871E-11	-9.797871E-11	   19.9369	   20.4888	   57.4475	   11.8021	
  -40.0000	 1.0730E-8	 1.0730E-8	-1.225881E-10	-1.225881E-10	   19.9112	   20.4888	   57.4320	   11.8021	
  -45.0000	 1.0061E-8	 1.0061E-8	-1.319876E-10	-1.319876E-10	   19.9112	   20.4998	   57.4320	   11.8083	
  -50.0000	 8.9470E-9	 8.9470E-9	-1.306318E-10	-1.306318E-10	   19.9061	   20.4894	   57.4519	   11.8038	
  -55.0000	 8.1130E-9	 8.1130E-9	-1.322798E-10	-1.322798E-10	   19.9215	   20.4894	   57.4519	   11.8038	
  -60.0000	 7.3860E-9	 7.3860E-9	-1.386435E-10	-1.386435E-10	   19.9215	   20.5056	   57.4513	   11.8188	
  -65.0000	 6.6770E-9	 6.6770E-9	-1.399376E-10	-1.399376E-10	   19.9447	   20.5056	   57.4519	   11.8190	
  -70.0000	 6.2460E-9	 6.2460E-9	-1.432286E-10	-1.432286E-10	   19.9730	   20.4700	   57.4684	   11.7900	
  -75.0000	 5.8850E-9	 5.8850E-9	-1.460958E-10	-1.460958E-10	   20.0245	   20.4700	   57.4633	   11.7900	
  -80.0000	 5.6250E-9	 5.6250E-9	-1.499480E-10	-1.499480E-10	   20.0245	   20.4897	   57.4633	   11.8071	
  -85.0000	 5.6280E-9	 5.6280E-9	-1.492064E-10	-1.492064E-10	   20.0605	   20.5020	   57.4614	   11.8181	
  -90.0000	 5.5630E-9	 5.5630E-9	-1.576113E-10	-1.576113E-10	   20.0939	   20.5020	   57.4943	   11.8181	
  -95.0000	 5.2460E-9	 5.2460E-9	-1.564394E-10	-1.564394E-10	   20.0939	   20.5020	   57.4943	   11.8267	
 -100.0000	 5.1790E-9	 5.1790E-9	-1.630577E-10	-1.630577E-10	   20.1068	   20.4918	   57.4873	   11.8154	
 -105.0000	 5.0040E-9	 5.0040E-9	-1.618254E-10	-1.618254E-10	   20.1068	   20.4559	   57.4927	   11.7833	
 -110.0000	 4.9420E-9	 4.9420E-9	-1.638601E-10	-1.638601E-10	   20.0862	   20.4559	   57.4956	   11.7833	
 -115.0000	 4.7270E-9	 4.7270E-9	-1.677080E-10	-1.677080E-10	   20.0862	   20.4660	   57.4956	   11.7934	
 -120.0000	 4.4760E-9	 4.4760E-9	-1.678495E-10	-1.678495E-10	   20.0450	   20.4803	   57.4908	   11.8055	
 -125.0000	 3.9890E-9	 3.9890E-9	-1.678583E-10	-1.678583E-10	   20.0064	   20.4803	   57.4858	   11.8055	
 -130.0000	 3.6140E-9	 3.6140E-9	-1.709476E-10	-1.709476E-10	   20.0064	   20.4916	   57.4858	   11.8148	
 -135.0000	 2.9310E-9	 2.9310E-9	-1.754198E-10	-1.754198E-10	   19.9472	   20.4916	   57.4911	   11.8148	
 -140.0000	 2.5640E-9	 2.5640E-9	-1.783290E-10	-1.783290E-10	   19.9472	   20.5097	   57.4911	   11.8331	
 -145.0000	 2.5370E-9	 2.5370E-9	-1.787054E-10	-1.787054E-10	   19.9035	   20.5097	   57.4915	   11.8331	
 -150.0000	 1.6940E-9	 1.6940E-9	-1.806841E-10	-1.806841E-10	   19.9035	   20.4631	   57.4915	   11.7897	
 -155.0000	 1.3160E-9	 1.3160E-9	-1.825492E-10	-1.825492E-10	   19.8829	   20.4659	   57.4953	   11.7933	
 -160.0000	7.1200E-10	7.1200E-10	-1.831658E-10	-1.831658E-10	   19.8829	   20.4659	   57.4972	   11.7933	
 -165.0000	6.4100E-10	6.4100E-10	-1.849057E-10	-1.849057E-10	   19.8829	   20.4659	   57.4972	   11.7938	
 -170.0000	1.4500E-10	1.4500E-10	-1.859858E-10	-1.859858E-10	   19.9009	   20.4993	   57.5120	   11.8289	
 -175.0000	-1.5000E-11	-1.5000E-11	-1.864527E-10	-1.864527E-10	   19.9266	   20.4924	   57.5202	   11.8246	
 -180.0000	-2.8800E-10	-2.8800E-10	-1.887200E-10	-1.887200E-10	   19.9807	   20.4924	   57.5266	   11.8246	
 -185.0000	-3.8800E-10	-3.8800E-10	-1.887697E-10	-1.887697E-10	   19.9807	   20.4720	   57.5266	   11.8072	
 -190.0000	-3.1900E-10	-3.1900E-10	-1.904197E-10	-1.904197E-10	   20.0579	   20.4720	   57.5557	   11.8072	
 -195.0000	-6.2700E-10	-6.2700E-10	-1.930503E-10	-1.930503E-10	   20.0579	   20.4555	   57.5557	   11.7994	
 -200.0000	-8.6100E-10	-8.6100E-10	-1.935445E-10	-1.935445E-10	   20.1223	   20.4555	   57.5753	   11.7994	
 -205.0000	-1.0510E-9	-1.0510E-9	-1.946378E-10	-1.946378E-10	   20.1223	   20.4387	   57.5753	   11.7889	
 -210.0000	-1.0220E-9	-1.0220E-9	-1.958253E-10	-1.958253E-10	   20.1480	   20.4494	   57.5870	   11.8020	
 -215.0000	-1.4710E-9	-1.4710E-9	-1.979768E-10	-1.979768E-10	   20.1506	   20.4494	   57.5889	   11.8020	
 -220.0000	-1.4860E-9	-1.4860E-9	-1.977439E-10	-1.977439E-10	   20.1506	   20.4494	   57.5889	   11.8025	
 -225.0000	-1.9590E-9	-1.9590E-9	-1.991622E-10	-1.991622E-10	   20.1326	   20.4714	   57.5838	   11.8217	
 -230.0000	-2.3070E-9	-2.3070E-9	-2.005737E-10	-2.005737E-10	   20.0991	   20.4577	   57.5680	   11.8048	
 -235.0000	-2.5590E-9	-2.5590E-9	-2.015332E-10	-2.015332E-10	   20.0553	   20.5261	   57.5550	   11.8653	
 -240.0000	-2.8040E-9	-2.8040E-9	-2.046789E-10	-2.046789E-10	   19.9833	   20.5261	   57.5357	   11.8653	
 -245.0000	-2.9200E-9	-2.9200E-9	-2.034443E-10	-2.034443E-10	   19.9833	   20.4533	   57.5357	   11.7921	
 -250.0000	-2.7340E-9	-2.7340E-9	-2.041892E-10	-2.041892E-10	   19.8906	   20.4533	   57.5490	   11.7921	
 -255.0000	-3.1250E-9	-3.1250E-9	-2.064082E-10	-2.064082E-10	   19.8906	   20.4582	   57.5490	   11.8002	
 -260.0000	-2.8770E-9	-2.8770E-9	-2.068384E-10	-2.068384E-10	   19.8520	   20.4749	   57.5405	   11.8136	
 -265.0000	-3.1190E-9	-3.1190E-9	-2.083320E-10	-2.083320E-10	   19.8185	   20.4749	   57.5392	   11.8136	
 -270.0000	-3.0480E-9	-3.0480E-9	-2.086545E-10	-2.086545E-10	   19.8185	   20.4566	   57.5392	   11.7962	
 -275.0000	-2.9560E-9	-2.9560E-9	-2.093561E-10	-2.093561E-10	   19.8263	   20.4699	   57.5607	   11.8143	
 -280.0000	-3.1700E-9	-3.1700E-9	-2.100692E-10	-2.100692E-10	   19.8700	   20.4699	   57.5895	   11.8143	
 -285.0000	-3.2360E-9	-3.2360E-9	-2.101803E-10	-2.101803E-10	   19.8700	   20.4699	   57.5895	   11.8219	
 -290.0000	-3.4120E-9	-3.4120E-9	-2.110973E-10	-2.110973E-10	   19.9653	   20.4699	   57.5939	   11.8219	
 -295.0000	-3.2920E-9	-3.2920E-9	-2.130057E-10	-2.130057E-10	   19.9653	   20.4460	   57.5939	   11.8006	
 -300.0000	-3.5140E-9	-3.5140E-9	-2.134722E-10	-2.134722E-10	   20.0811	   20.4460	   57.6123	   11.8006	
 -305.0000	-3.8140E-9	-3.8140E-9	-2.144259E-10	-2.144259E-10	   20.0811	   20.4400	   57.6123	   11.7999	
 -310.0000	-4.2010E-9	-4.2010E-9	-2.161376E-10	-2.161376E-10	   20.1506	   20.4474	   57.6357	   11.8129	
 -315.0000	-4.6950E-9	-4.6950E-9	-2.148365E-10	-2.148365E-10	   20.2098	   20.4474	   57.6319	   11.8129	
 -320.0000	-5.5570E-9	-5.5570E-9	-2.168464E-10	-2.168464E-10	   20.2098	   20.4474	   57.6319	   11.8119	
 -325.0000	-6.3030E-9	-6.3030E-9	-2.170503E-10	-2.170503E-10	   20.2252	   20.4645	   57.6078	   11.8216	
 -330.0000	-6.9360E-9	-6.9360E-9	-2.180857E-10	-2.180857E-10	   20.2124	   20.4717	   57.6205	   11.8316	
 -335.0000	-7.8880E-9	-7.8880E-9	-2.191496E-10	-2.191496E-10	   20.1737	   20.4808	   57.6082	   11.8369	
 -340.0000	-8.1050E-9	-8.1050E-9	-2.198294E-10	-2.198294E-10	   20.0476	   20.4808	   57.5810	   11.8369	
 -345.0000	-7.7980E-9	-7.7980E-9	-2.192375E-10	-2.192375E-10	   20.0476	   20.4808	   57.5810	   11.8298	
 -350.0000	-7.2150E-9	-7.2150E-9	-2.214353E-10	-2.214353E-10	   19.9292	   20.4778	   57.5870	   11.8286	
 -355.0000	-6.5370E-9	-6.5370E-9	-2.222764E-10	-2.222764E-10	   19.8391	   20.4501	   57.5734	   11.7991	
 -360.0000	-6.1070E-9	-6.1070E-9	-2.222879E-10	-2.222879E-10	   19.7825	   20.4659	   57.5784	   11.8152	
 -365.0000	-5.4220E-9	-5.4220E-9	-2.202098E-10	-2.202098E-10	   19.7336	   20.4846	   57.5914	   11.8361	
 -370.0000	-5.2810E-9	-5.2810E-9	-2.225480E-10	-2.225480E-10	   19.7336	   20.4846	   57.5914	   11.8361	
 -375.0000	-4.7710E-9	-4.7710E-9	-2.220153E-10	-2.220153E-10	   19.7542	   20.4444	   57.5870	   11.7973	
 -380.0000	-4.7420E-9	-4.7420E-9	-2.210726E-10	-2.210726E-10	   19.7954	   20.4552	   57.6221	   11.8167	
 -385.0000	-4.5390E-9	-4.5390E-9	-2.217247E-10	-2.217247E-10	   19.9164	   20.4552	   57.6486	   11.8167	
 -390.0000	-4.6260E-9	-4.6260E-9	-2.226478E-10	-2.226478E-10	   19.9164	   20.4606	   57.6486	   11.8287	
 -395.0000	-5.0070E-9	-5.0070E-9	-2.226586E-10	-2.226586E-10	   20.0167	   20.4534	   57.6831	   11.8310	
 -400.0000	-5.0880E-9	-5.0880E-9	-2.237118E-10	-2.237118E-10	   20.1557	   20.4534	   57.6935	   11.8310	
 -410.0000	-5.9940E-9	-5.9940E-9	-2.249082E-10	-2.249082E-10	   20.1557	   20.4852	   57.6935	   11.8634	
 -420.0000	-6.7360E-9	-6.7360E-9	-2.268998E-10	-2.268998E-10	   20.2767	   20.4852	   57.6825	   11.8634	
 -430.0000	-8.1030E-9	-8.1030E-9	-2.263477E-10	-2.263477E-10	   20.2767	   20.4443	   57.6825	   11.8223	
 -440.0000	-9.8930E-9	-9.8930E-9	-2.276863E-10	-2.276863E-10	   20.3205	   20.4635	   57.6910	   11.8425	
 -450.0000	-1.0970E-8	-1.0970E-8	-2.287244E-10	-2.287244E-10	   20.3205	   20.4539	   57.6869	   11.8325	
 -460.0000	-1.2190E-8	-1.2190E-8	-2.297145E-10	-2.297145E-10	   20.2587	   20.4539	   57.6429	   11.8325	
 -470.0000	-1.2990E-8	-1.2990E-8	-2.310824E-10	-2.310824E-10	   20.2587	   20.4585	   57.6429	   11.8253	
 -480.0000	-1.3660E-8	-1.3660E-8	-2.348193E-10	-2.348193E-10	   20.1789	   20.4632	   57.6290	   11.8259	
 -490.0000	-1.3280E-8	-1.3280E-8	-2.335652E-10	-2.335652E-10	   20.0425	   20.4632	   57.6044	   11.8259	
 -500.0000	-1.3330E-8	-1.3330E-8	-2.340468E-10	-2.340468E-10	   20.0425	   20.4517	   57.6044	   11.8087	
 -510.0000	-1.1610E-8	-1.1610E-8	-2.359442E-10	-2.359442E-10	   19.9472	   20.4808	   57.5930	   11.8330	
 -520.0000	-1.1020E-8	-1.1020E-8	-2.358173E-10	-2.358173E-10	   19.8443	   20.5062	   57.6101	   11.8612	
 -530.0000	-1.0500E-8	-1.0500E-8	-2.350626E-10	-2.350626E-10	   19.8443	   20.5062	   57.6101	   11.8612	
 -540.0000	-9.6100E-9	-9.6100E-9	-2.344962E-10	-2.344962E-10	   19.7877	   20.4602	   57.6363	   11.8250	
 -550.0000	-9.0020E-9	-9.0020E-9	-2.372721E-10	-2.372721E-10	   19.7774	   20.4602	   57.6486	   11.8250	
 -560.0000	-8.7070E-9	-8.7070E-9	-2.359898E-10	-2.359898E-10	   19.7774	   20.4756	   57.6486	   11.8427	
 -570.0000	-8.4400E-9	-8.4400E-9	-2.341823E-10	-2.341823E-10	   19.8134	   20.4448	   57.6521	   11.8148	
 -580.0000	-8.1770E-9	-8.1770E-9	-2.304672E-10	-2.304672E-10	   19.9395	   20.4448	   57.6841	   11.8148	
 -590.0000	-8.2010E-9	-8.2010E-9	-2.319799E-10	-2.319799E-10	   20.0553	   20.4623	   57.7122	   11.8396	
 -600.0000	-8.6410E-9	-8.6410E-9	-2.349692E-10	-2.349692E-10	   20.0553	   20.4453	   57.7122	   11.8311	
 -610.0000	-9.2760E-9	-9.2760E-9	-2.353337E-10	-2.353337E-10	   20.1763	   20.4541	   57.7100	   11.8387	
 -620.0000	-1.0580E-8	-1.0580E-8	-2.363925E-10	-2.363925E-10	   20.2458	   20.4769	   57.7271	   11.8645	
 -630.0000	-1.2160E-8	-1.2160E-8	-2.353829E-10	-2.353829E-10	   20.3153	   20.4769	   57.7185	   11.8645	
 -640.0000	-1.3540E-8	-1.3540E-8	-2.370431E-10	-2.370431E-10	   20.3153	   20.4764	   57.7185	   11.8618	
 -650.0000	-1.5700E-8	-1.5700E-8	-2.392927E-10	-2.392927E-10	   20.3076	   20.4633	   57.7030	   11.8455	
 -660.0000	-1.6920E-8	-1.6920E-8	-2.407879E-10	-2.407879E-10	   20.2535	   20.4446	   57.6860	   11.8236	
 -670.0000	-1.6980E-8	-1.6980E-8	-2.403564E-10	-2.403564E-10	   20.1686	   20.4446	   57.6578	   11.8236	
 -680.0000	-1.6840E-8	-1.6840E-8	-2.388916E-10	-2.388916E-10	   20.1686	   20.4446	   57.6578	   11.8162	
 -690.0000	-1.5740E-8	-1.5740E-8	-2.430544E-10	-2.430544E-10	   20.0553	   20.4675	   57.6486	   11.8352	
 -700.0000	-1.4250E-8	-1.4250E-8	-2.429280E-10	-2.429280E-10	   19.9755	   20.4798	   57.6025	   11.8345	
 -710.0000	-1.2770E-8	-1.2770E-8	-2.426412E-10	-2.426412E-10	   19.8958	   20.4516	   57.6009	   11.8077	
 -720.0000	-1.1800E-8	-1.1800E-8	-2.457620E-10	-2.457620E-10	   19.8108	   20.4516	   57.6496	   11.8077	
 -730.0000	-1.1090E-8	-1.1090E-8	-2.416452E-10	-2.416452E-10	   19.8108	   20.4762	   57.6496	   11.8435	
 -740.0000	-1.0050E-8	-1.0050E-8	-2.424998E-10	-2.424998E-10	   19.7851	   20.4556	   57.6701	   11.8296	
 -750.0000	-9.3670E-9	-9.3670E-9	-2.443817E-10	-2.443817E-10	   19.7980	   20.4967	   57.6765	   11.8697	
 -760.0000	-8.9380E-9	-8.9380E-9	-2.421591E-10	-2.421591E-10	   19.7980	   20.4967	   57.6765	   11.8697	
 -770.0000	-8.9810E-9	-8.9810E-9	-2.432929E-10	-2.432929E-10	   19.8623	   20.4380	   57.6907	   11.8186	
 -780.0000	-8.7790E-9	-8.7790E-9	-2.434524E-10	-2.434524E-10	   19.9704	   20.4380	   57.6989	   11.8186	
 -790.0000	-9.0410E-9	-9.0410E-9	-2.432629E-10	-2.432629E-10	   19.9704	   20.4613	   57.6989	   11.8426	
 -800.0000	-9.1750E-9	-9.1750E-9	-2.465287E-10	-2.465287E-10	   20.0991	   20.4689	   57.7249	   11.8565	
 -810.0000	-9.7210E-9	-9.7210E-9	-2.455832E-10	-2.455832E-10	   20.1789	   20.4689	   57.7188	   11.8565	
 -820.0000	-1.0780E-8	-1.0780E-8	-2.434100E-10	-2.434100E-10	   20.1789	   20.4495	   57.7188	   11.8367	
 -830.0000	-1.2480E-8	-1.2480E-8	-2.433901E-10	-2.433901E-10	   20.2458	   20.4337	   57.7280	   11.8243	
 -840.0000	-1.3800E-8	-1.3800E-8	-2.429518E-10	-2.429518E-10	   20.2690	   20.4562	   57.6958	   11.8369	
 -850.0000	-1.6220E-8	-1.6220E-8	-2.450612E-10	-2.450612E-10	   20.2664	   20.4712	   57.6787	   11.8465	
 -860.0000	-1.6540E-8	-1.6540E-8	-2.454251E-10	-2.454251E-10	   20.2124	   20.4781	   57.6442	   11.8439	
 -870.0000	-1.7080E-8	-1.7080E-8	-2.509193E-10	-2.509193E-10	   20.2124	   20.4781	   57.6442	   11.8439	
 -880.0000	-1.5840E-8	-1.5840E-8	-2.529621E-10	-2.529621E-10	   20.1094	   20.4787	   57.6392	   11.8431	
 -890.0000	-1.4350E-8	-1.4350E-8	-2.533306E-10	-2.533306E-10	   20.0142	   20.4610	   57.6376	   11.8261	
 -900.0000	-1.2820E-8	-1.2820E-8	-2.537897E-10	-2.537897E-10	   19.9395	   20.4596	   57.6648	   11.8320	
 -910.0000	-1.1480E-8	-1.1480E-8	-2.516938E-10	-2.516938E-10	   19.8623	   20.4739	   57.6818	   11.8499	
 -920.0000	-1.0810E-8	-1.0810E-8	-2.529839E-10	-2.529839E-10	   19.8057	   20.4678	   57.6879	   11.8457	
 -930.0000	-9.5700E-9	-9.5700E-9	-2.519334E-10	-2.519334E-10	   19.7722	   20.4678	   57.6812	   11.8457	
 -940.0000	-9.2460E-9	-9.2460E-9	-2.525160E-10	-2.525160E-10	   19.7722	   20.4678	   57.6812	   11.8439	
 -950.0000	-8.7150E-9	-8.7150E-9	-2.521389E-10	-2.521389E-10	   19.7877	   20.4950	   57.6616	   11.8642	
 -960.0000	-8.2360E-9	-8.2360E-9	-2.518007E-10	-2.518007E-10	   19.8469	   20.4950	   57.6565	   11.8642	
 -970.0000	-8.0400E-9	-8.0400E-9	-2.507699E-10	-2.507699E-10	   19.9344	   20.4950	   57.6509	   11.8629	
 -980.0000	-7.6350E-9	-7.6350E-9	-2.506026E-10	-2.506026E-10	   19.9344	   20.4721	   57.6509	   11.8400	
 -990.0000	-8.0280E-9	-8.0280E-9	-2.535233E-10	-2.535233E-10	   20.0579	   20.4788	   57.6686	   11.8510	
-1000.0000	-8.7270E-9	-8.7270E-9	-2.549381E-10	-2.549381E-10	   20.1300	   20.4305	   57.6717	   11.8067	
