GCD Test
Bias: 5000.000000
IV_34341_024_PSS_HM_XX_DIODEHALFPSTOP_GRConnected_Biased_Box
Date/Time: 7/23/2021 2:59:15 PM
Sensor Name: DIODEHALFPSTOP
Type: P
Annealing Status: Not Irradiated
Environment: 20C
Tester: Andrew Kent

Time Delay per Ramp Step (s): 0.500

CV Time Delay per Measurement (s) :0.500

AC Voltage (V): 0.500

Current Number of measurements per voltage: 1.000

IV Time Delay per Measurement (s) :0.000


BiasVoltage	Total Current_Avg	Total Current_0	Bias Current_Avg	Bias Current_0	Temperature	Air_Temp	Humidity	Dewpoint	
   -5.0000	5.7000E-11	5.7000E-11	-8.817468E-12	-8.817468E-12	   19.8623	   19.9858	   35.0740	    4.1018	
  -10.0000	-8.0100E-10	-8.0100E-10	-9.295782E-12	-9.295782E-12	   19.9189	   20.0034	   34.9364	    4.0613	
  -15.0000	-9.9300E-10	-9.9300E-10	-1.197805E-11	-1.197805E-11	   19.9704	   19.9862	   34.8431	    4.0082	
  -20.0000	-1.7490E-9	-1.7490E-9	-1.280124E-11	-1.280124E-11	   20.0656	   19.9862	   34.6679	    4.0082	
  -25.0000	-1.0380E-9	-1.0380E-9	-1.176435E-11	-1.176435E-11	   20.0656	   19.9880	   34.6679	    3.9381	
  -30.0000	-1.9700E-9	-1.9700E-9	-6.534887E-12	-6.534887E-12	   20.1223	   19.9060	   34.5585	    3.8211	
  -35.0000	-2.1960E-9	-2.1960E-9	-1.097314E-11	-1.097314E-11	   20.1609	   20.0473	   34.4228	    3.8895	
  -40.0000	-2.4580E-9	-2.4580E-9	-1.010696E-11	-1.010696E-11	   20.1840	   20.0473	   34.3460	    3.8895	
  -45.0000	-2.5610E-9	-2.5610E-9	-9.776339E-12	-9.776339E-12	   20.1840	   20.0473	   34.3460	    3.8577	
  -50.0000	-2.3570E-9	-2.3570E-9	-1.015707E-11	-1.015707E-11	   20.1609	   20.0169	   34.2634	    3.7969	
  -55.0000	-2.8580E-9	-2.8580E-9	-1.025160E-11	-1.025160E-11	   20.1017	   20.0169	   34.1935	    3.7969	
  -60.0000	-2.7840E-9	-2.7840E-9	-1.182689E-11	-1.182689E-11	   20.1017	   20.0169	   34.1935	    3.7679	
  -65.0000	-3.0420E-9	-3.0420E-9	-1.204507E-11	-1.204507E-11	   20.0270	   20.0228	   34.1363	    3.7492	
  -70.0000	-3.6580E-9	-3.6580E-9	-9.688336E-12	-9.688336E-12	   19.9292	   20.0228	   34.0699	    3.7492	
  -75.0000	-3.7660E-9	-3.7660E-9	-1.312107E-11	-1.312107E-11	   19.9292	   20.0229	   34.0699	    3.7218	
  -80.0000	-3.7120E-9	-3.7120E-9	-1.356801E-11	-1.356801E-11	   19.8572	   20.0304	   34.0234	    3.7090	
  -85.0000	-3.7670E-9	-3.7670E-9	-1.029417E-11	-1.029417E-11	   19.8057	   19.9852	   33.9763	    3.6497	
  -90.0000	-3.8370E-9	-3.8370E-9	-1.487421E-11	-1.487421E-11	   19.7928	   19.9852	   33.9567	    3.6497	
  -95.0000	-4.2370E-9	-4.2370E-9	-1.429037E-11	-1.429037E-11	   19.7928	   20.0263	   33.9567	    3.6775	
 -100.0000	-4.5790E-9	-4.5790E-9	-1.153049E-11	-1.153049E-11	   19.8288	   19.9516	   33.9244	    3.5985	
 -105.0000	-4.6970E-9	-4.6970E-9	-1.232985E-11	-1.232985E-11	   19.8880	   19.9516	   33.9016	    3.5985	
 -110.0000	-4.6170E-9	-4.6170E-9	-1.285666E-11	-1.285666E-11	   19.8880	   20.0318	   33.9016	    3.6593	
 -115.0000	-4.6240E-9	-4.6240E-9	-1.151338E-11	-1.151338E-11	   20.0116	   19.9925	   33.8662	    3.6101	
 -120.0000	-4.3230E-9	-4.3230E-9	-1.294221E-11	-1.294221E-11	   20.0116	   19.9925	   33.8662	    3.6101	
 -125.0000	-4.5980E-9	-4.5980E-9	-1.248956E-11	-1.248956E-11	   20.1326	   20.0954	   33.8286	    3.6845	
 -130.0000	-5.4730E-9	-5.4730E-9	-1.167615E-11	-1.167615E-11	   20.2201	   20.0954	   33.8156	    3.6845	
 -135.0000	-5.4210E-9	-5.4210E-9	-1.314348E-11	-1.314348E-11	   20.2201	   20.0954	   33.8156	    3.6791	
 -140.0000	-5.5440E-9	-5.5440E-9	-1.333130E-11	-1.333130E-11	   20.2510	   20.0216	   33.7717	    3.5959	
 -145.0000	-5.0880E-9	-5.0880E-9	-1.324717E-11	-1.324717E-11	   20.2252	   20.0216	   33.7789	    3.5959	
 -150.0000	-5.8490E-9	-5.8490E-9	-1.363361E-11	-1.363361E-11	   20.2252	   20.0216	   33.7789	    3.5990	
 -155.0000	-5.9100E-9	-5.9100E-9	-1.405264E-11	-1.405264E-11	   20.1634	   19.9726	   33.7495	    3.5437	
 -160.0000	-6.2270E-9	-6.2270E-9	-1.414410E-11	-1.414410E-11	   20.0837	   20.0164	   33.7527	    3.5834	
 -165.0000	-5.7230E-9	-5.7230E-9	-1.348306E-11	-1.348306E-11	   19.9987	   19.9702	   33.7236	    3.5307	
 -170.0000	-6.3430E-9	-6.3430E-9	-1.455478E-11	-1.455478E-11	   19.9138	   20.0331	   33.7223	    3.5853	
 -175.0000	-6.4210E-9	-6.4210E-9	-1.317200E-11	-1.317200E-11	   19.8031	   20.0331	   33.7103	    3.5853	
 -180.0000	-6.1010E-9	-6.1010E-9	-1.362281E-11	-1.362281E-11	   19.8031	   20.0041	   33.7103	    3.5548	
 -185.0000	-6.7010E-9	-6.7010E-9	-1.385605E-11	-1.385605E-11	   19.7594	   20.0387	   33.6961	    3.5792	
 -190.0000	-7.1980E-9	-7.1980E-9	-1.492656E-11	-1.492656E-11	   19.7491	   20.0283	   33.6948	    3.5696	
 -195.0000	-7.3520E-9	-7.3520E-9	-1.449021E-11	-1.449021E-11	   19.7748	   19.9977	   33.7015	    3.5455	
 -200.0000	-7.4280E-9	-7.4280E-9	-1.438468E-11	-1.438468E-11	   19.8237	   19.9883	   33.6898	    3.5323	
 -205.0000	-7.4480E-9	-7.4480E-9	-1.712257E-11	-1.712257E-11	   19.9035	   20.0593	   33.6698	    3.5862	
 -210.0000	-7.5650E-9	-7.5650E-9	-1.473507E-11	-1.473507E-11	   19.9987	   20.0172	   33.6588	    3.5447	
 -215.0000	-7.3660E-9	-7.3660E-9	-1.580393E-11	-1.580393E-11	   20.1454	   20.0172	   33.6844	    3.5447	
 -220.0000	-8.0510E-9	-8.0510E-9	-1.594471E-11	-1.594471E-11	   20.1454	   20.0017	   33.6844	    3.5419	
 -225.0000	-8.2380E-9	-8.2380E-9	-1.623133E-11	-1.623133E-11	   20.2355	   20.0231	   33.6812	    3.5592	
 -230.0000	-8.3570E-9	-8.3570E-9	-1.663263E-11	-1.663263E-11	   20.2793	   19.9798	   33.6739	    3.5183	
 -235.0000	-8.7290E-9	-8.7290E-9	-1.544704E-11	-1.544704E-11	   20.3024	   19.9624	   33.6724	    3.5023	
 -240.0000	-8.5480E-9	-8.5480E-9	-1.436982E-11	-1.436982E-11	   20.2561	   19.9624	   33.6755	    3.5023	
 -245.0000	-8.3730E-9	-8.3730E-9	-1.778870E-11	-1.778870E-11	   20.2561	   20.0249	   33.6755	    3.5584	
 -250.0000	-8.7080E-9	-8.7080E-9	-1.773899E-11	-1.773899E-11	   20.1737	   20.0082	   33.6607	    3.5375	
 -255.0000	-8.8380E-9	-8.8380E-9	-1.746317E-11	-1.746317E-11	   20.0888	   19.9309	   33.6607	    3.4697	
 -260.0000	-8.7160E-9	-8.7160E-9	-1.464605E-11	-1.464605E-11	   20.0013	   20.0384	   33.6692	    3.5676	
 -265.0000	-9.2060E-9	-9.2060E-9	-1.484894E-11	-1.484894E-11	   19.8752	   20.0384	   33.6436	    3.5676	
 -270.0000	-9.2070E-9	-9.2070E-9	-1.768174E-11	-1.768174E-11	   19.8752	   20.0430	   33.6436	    3.5609	
 -275.0000	-9.2570E-9	-9.2570E-9	-1.846827E-11	-1.846827E-11	   19.8108	   20.0197	   33.6660	    3.5499	
 -280.0000	-9.1850E-9	-9.1850E-9	-1.678644E-11	-1.678644E-11	   19.7748	   19.9814	   33.6477	    3.5086	
 -285.0000	-9.5550E-9	-9.5550E-9	-1.489254E-11	-1.489254E-11	   19.7748	   19.9754	   33.6534	    3.5057	
 -290.0000	-9.6470E-9	-9.6470E-9	-1.635130E-11	-1.635130E-11	   19.8314	   19.9754	   33.6531	    3.5057	
 -295.0000	-9.7160E-9	-9.7160E-9	-1.822239E-11	-1.822239E-11	   19.8314	   20.0591	   33.6531	    3.5789	
 -300.0000	-9.9640E-9	-9.9640E-9	-2.000853E-11	-2.000853E-11	   19.9215	   20.0062	   33.6664	    3.5382	
 -305.0000	-9.7120E-9	-9.7120E-9	-1.923952E-11	-1.923952E-11	   20.0142	   20.0261	   33.6670	    3.5559	
 -310.0000	-9.9200E-9	-9.9200E-9	-1.564708E-11	-1.564708E-11	   20.1042	   20.0662	   33.6825	    3.5975	
 -315.0000	-1.0130E-8	-1.0130E-8	-1.692027E-11	-1.692027E-11	   20.2175	   20.0210	   33.6651	    3.5506	
 -320.0000	-9.4800E-9	-9.4800E-9	-1.605796E-11	-1.605796E-11	   20.2175	   20.0210	   33.6651	    3.5506	
 -325.0000	-1.0260E-8	-1.0260E-8	-1.719875E-11	-1.719875E-11	   20.2716	   20.0177	   33.6711	    3.5503	
 -330.0000	-1.0270E-8	-1.0270E-8	-1.591496E-11	-1.591496E-11	   20.2844	   20.0133	   33.6559	    3.5401	
 -335.0000	-1.0640E-8	-1.0640E-8	-1.708141E-11	-1.708141E-11	   20.2587	   20.0478	   33.6762	    3.5788	
 -340.0000	-9.9700E-9	-9.9700E-9	-1.628450E-11	-1.628450E-11	   20.2046	   20.0269	   33.6910	    3.5667	
 -345.0000	-1.0790E-8	-1.0790E-8	-1.702804E-11	-1.702804E-11	   20.1274	   19.9686	   33.6553	    3.5005	
 -350.0000	-1.0040E-8	-1.0040E-8	-1.701500E-11	-1.701500E-11	   20.0425	   19.8493	   33.6512	    3.3942	
 -355.0000	-1.0450E-8	-1.0450E-8	-2.015235E-11	-2.015235E-11	   19.9550	   19.9696	   33.6648	    3.5054	
 -360.0000	-1.0610E-8	-1.0610E-8	-1.750798E-11	-1.750798E-11	   19.9550	   19.9696	   33.6648	    3.5054	
 -365.0000	-1.0940E-8	-1.0940E-8	-1.702518E-11	-1.702518E-11	   19.8546	   20.0696	   33.6793	    3.5992	
 -370.0000	-1.1390E-8	-1.1390E-8	-1.680701E-11	-1.680701E-11	   19.8031	   19.9765	   33.6676	    3.5127	
 -375.0000	-1.1530E-8	-1.1530E-8	-2.002238E-11	-2.002238E-11	   19.7799	   20.0035	   33.6768	    3.5402	
 -380.0000	-1.1300E-8	-1.1300E-8	-1.665606E-11	-1.665606E-11	   19.7799	   20.0035	   33.6768	    3.5402	
 -385.0000	-1.1920E-8	-1.1920E-8	-1.803294E-11	-1.803294E-11	   19.7851	   19.9006	   33.6679	    3.4462	
 -390.0000	-1.2100E-8	-1.2100E-8	-1.768500E-11	-1.768500E-11	   19.8134	   19.9926	   33.6926	    3.5373	
 -395.0000	-1.1440E-8	-1.1440E-8	-1.858010E-11	-1.858010E-11	   19.9061	   19.9926	   33.6499	    3.5373	
 -400.0000	-1.1790E-8	-1.1790E-8	-1.590660E-11	-1.590660E-11	   19.9061	   19.9926	   33.6499	    3.5193	
 -410.0000	-1.2710E-8	-1.2710E-8	-2.007209E-11	-2.007209E-11	   20.0090	   19.9870	   33.6796	    3.5269	
 -420.0000	-1.3160E-8	-1.3160E-8	-2.039680E-11	-2.039680E-11	   20.0090	   19.9870	   33.6796	    3.5269	
 -430.0000	-1.3710E-8	-1.3710E-8	-2.016987E-11	-2.016987E-11	   20.1248	   19.9886	   33.6904	    3.5329	
 -440.0000	-1.4130E-8	-1.4130E-8	-1.741997E-11	-1.741997E-11	   20.1840	   20.0658	   33.6926	    3.6015	
 -450.0000	-1.4560E-8	-1.4560E-8	-1.754546E-11	-1.754546E-11	   20.2432	   20.0658	   33.6926	    3.6015	
 -460.0000	-1.4890E-8	-1.4890E-8	-2.118841E-11	-2.118841E-11	   20.2432	   19.9833	   33.6983	    3.5315	
 -470.0000	-1.4680E-8	-1.4680E-8	-2.125340E-11	-2.125340E-11	   20.2561	   19.9833	   33.6784	    3.5231	
 -480.0000	-1.5670E-8	-1.5670E-8	-2.267692E-11	-2.267692E-11	   20.2278	   19.9833	   33.6784	    3.5231	
 -490.0000	-1.5530E-8	-1.5530E-8	-1.799179E-11	-1.799179E-11	   20.2278	   19.9979	   33.6686	    3.5318	
 -500.0000	-1.6030E-8	-1.6030E-8	-2.203973E-11	-2.203973E-11	   20.1840	   19.9979	   33.6806	    3.5369	
 -510.0000	-1.6720E-8	-1.6720E-8	-2.268303E-11	-2.268303E-11	   20.0939	   19.9979	   33.6806	    3.5369	
 -520.0000	-1.6900E-8	-1.6900E-8	-2.015112E-11	-2.015112E-11	   20.0939	   19.9302	   33.6898	    3.4814	
 -530.0000	-1.7230E-8	-1.7230E-8	-2.233000E-11	-2.233000E-11	   20.0193	   19.9302	   33.6749	    3.4751	
 -540.0000	-1.7660E-8	-1.7660E-8	-2.244408E-11	-2.244408E-11	   19.9189	   19.9302	   33.6837	    3.4751	
 -550.0000	-1.7170E-8	-1.7170E-8	-1.960150E-11	-1.960150E-11	   19.9189	   19.9849	   33.6837	    3.5268	
 -560.0000	-1.8040E-8	-1.8040E-8	-2.324527E-11	-2.324527E-11	   19.8546	   20.0028	   33.7021	    3.5503	
 -570.0000	-1.7630E-8	-1.7630E-8	-2.321065E-11	-2.321065E-11	   19.7954	   20.0028	   33.6986	    3.5503	
 -580.0000	-1.8280E-8	-1.8280E-8	-1.998245E-11	-1.998245E-11	   19.7954	   19.9759	   33.6986	    3.5252	
 -590.0000	-1.9070E-8	-1.9070E-8	-2.323449E-11	-2.323449E-11	   19.7748	   19.9804	   33.6875	    3.5245	
 -600.0000	-1.8610E-8	-1.8610E-8	-2.333329E-11	-2.333329E-11	   19.7825	   19.9804	   33.6951	    3.5245	
 -610.0000	-1.9330E-8	-1.9330E-8	-2.071275E-11	-2.071275E-11	   19.7825	   19.9390	   33.6951	    3.4914	
 -620.0000	-1.9950E-8	-1.9950E-8	-2.398923E-11	-2.398923E-11	   19.8185	   19.9869	   33.6866	    3.5298	
 -630.0000	-2.0230E-8	-2.0230E-8	-2.356430E-11	-2.356430E-11	   19.8880	   19.9869	   33.6866	    3.5298	
 -640.0000	-1.9830E-8	-1.9830E-8	-2.029983E-11	-2.029983E-11	   19.8880	   20.0356	   33.6954	    3.5762	
 -650.0000	-2.0340E-8	-2.0340E-8	-2.390837E-11	-2.390837E-11	   19.9653	   20.0356	   33.6863	    3.5723	
 -660.0000	-2.0740E-8	-2.0740E-8	-2.293809E-11	-2.293809E-11	   20.0553	   20.0356	   33.7034	    3.5723	
 -670.0000	-2.0310E-8	-2.0310E-8	-1.994538E-11	-1.994538E-11	   20.0553	   20.0116	   33.7034	    3.5585	
 -680.0000	-2.0830E-8	-2.0830E-8	-2.341661E-11	-2.341661E-11	   20.1274	   20.0536	   33.7005	    3.5941	
 -690.0000	-2.1410E-8	-2.1410E-8	-2.190182E-11	-2.190182E-11	   20.1866	   20.0536	   33.7090	    3.5941	
 -700.0000	-2.1560E-8	-2.1560E-8	-2.445390E-11	-2.445390E-11	   20.1866	   19.9228	   33.7090	    3.4830	
 -710.0000	-2.1870E-8	-2.1870E-8	-2.184253E-11	-2.184253E-11	   20.2124	   19.9582	   33.6964	    3.5087	
 -720.0000	-2.1840E-8	-2.1840E-8	-2.499822E-11	-2.499822E-11	   20.2124	   19.9582	   33.6951	    3.5087	
 -730.0000	-2.1210E-8	-2.1210E-8	-2.254879E-11	-2.254879E-11	   20.2124	   19.9111	   33.6951	    3.4669	
 -740.0000	-2.1300E-8	-2.1300E-8	-2.174495E-11	-2.174495E-11	   20.1840	   20.0206	   33.6999	    3.5649	
 -750.0000	-2.2290E-8	-2.2290E-8	-2.092034E-11	-2.092034E-11	   20.1197	   20.0206	   33.6999	    3.5649	
 -760.0000	-2.2090E-8	-2.2090E-8	-2.197556E-11	-2.197556E-11	   20.1197	   19.9379	   33.6961	    3.4908	
 -770.0000	-2.1910E-8	-2.1910E-8	-2.459793E-11	-2.459793E-11	   20.0605	   19.9379	   33.6910	    3.4887	
 -780.0000	-2.2450E-8	-2.2450E-8	-2.346305E-11	-2.346305E-11	   19.9678	   19.9379	   33.6733	    3.4887	
 -790.0000	-2.2050E-8	-2.2050E-8	-2.156162E-11	-2.156162E-11	   19.9678	   20.0105	   33.6733	    3.5448	
 -800.0000	-2.2460E-8	-2.2460E-8	-2.422900E-11	-2.422900E-11	   19.9086	   19.9733	   33.6812	    3.5156	
 -810.0000	-2.2260E-8	-2.2260E-8	-2.355044E-11	-2.355044E-11	   19.8391	   19.9733	   33.6834	    3.5156	
 -820.0000	-2.2220E-8	-2.2220E-8	-2.114808E-11	-2.114808E-11	   19.8391	   19.8754	   33.6834	    3.4306	
 -830.0000	-2.2980E-8	-2.2980E-8	-2.365617E-11	-2.365617E-11	   19.8083	   20.0029	   33.6765	    3.5395	
 -840.0000	-2.2530E-8	-2.2530E-8	-2.203769E-11	-2.203769E-11	   19.7980	   20.0029	   33.6917	    3.5395	
 -850.0000	-2.2870E-8	-2.2870E-8	-2.130534E-11	-2.130534E-11	   19.7980	   20.0849	   33.6917	    3.6179	
 -860.0000	-2.2270E-8	-2.2270E-8	-2.392588E-11	-2.392588E-11	   19.8134	   19.9797	   33.6831	    3.5220	
 -870.0000	-2.3170E-8	-2.3170E-8	-2.337871E-11	-2.337871E-11	   19.8623	   19.9797	   33.6831	    3.5220	
 -880.0000	-2.3260E-8	-2.3260E-8	-2.165878E-11	-2.165878E-11	   19.8623	   19.9451	   33.6907	    3.4949	
 -890.0000	-2.3180E-8	-2.3180E-8	-2.379305E-11	-2.379305E-11	   19.9266	   19.9451	   33.6894	    3.4943	
 -900.0000	-2.2630E-8	-2.2630E-8	-2.251661E-11	-2.251661E-11	   20.0039	   19.9451	   33.6901	    3.4943	
 -910.0000	-2.3010E-8	-2.3010E-8	-2.354473E-11	-2.354473E-11	   20.0039	   19.9935	   33.6901	    3.5370	
 -920.0000	-2.2840E-8	-2.2840E-8	-2.123221E-11	-2.123221E-11	   20.0734	   20.0025	   33.6929	    3.5461	
 -930.0000	-2.2880E-8	-2.2880E-8	-2.196496E-11	-2.196496E-11	   20.1403	   20.0025	   33.6929	    3.5461	
 -940.0000	-2.2950E-8	-2.2950E-8	-2.170380E-11	-2.170380E-11	   20.1403	   19.9702	   33.6929	    3.5178	
 -950.0000	-2.2550E-8	-2.2550E-8	-2.405177E-11	-2.405177E-11	   20.1789	   19.9827	   33.6863	    3.5259	
 -960.0000	-2.1740E-8	-2.1740E-8	-2.427401E-11	-2.427401E-11	   20.1918	   19.9827	   33.7043	    3.5259	
 -970.0000	-2.2310E-8	-2.2310E-8	-2.132571E-11	-2.132571E-11	   20.1918	   19.9780	   33.7043	    3.5294	
 -980.0000	-2.2600E-8	-2.2600E-8	-2.557289E-11	-2.557289E-11	   20.1815	   20.0452	   33.6901	    3.5824	
 -990.0000	-2.2130E-8	-2.2130E-8	-2.385194E-11	-2.385194E-11	   20.1377	   20.0452	   33.6932	    3.5824	
-1000.0000	-2.1900E-8	-2.1900E-8	-2.432190E-11	-2.432190E-11	   20.1377	   20.0006	   33.6932	    3.5446	
