GCD Test
Bias: 5000.000000
IV_34343_036_PSS_HM_XX_DIODE_Biased_Front
Date/Time: 7/15/2021 2:53:20 PM
Sensor Name: DIODE
Type: P
Annealing Status: Not Irradiated
Environment: 20C
Tester: Andrew Kent

Time Delay per Ramp Step (s): 0.500

CV Time Delay per Measurement (s) :0.500

AC Voltage (V): 0.500

Current Number of measurements per voltage: 1.000

IV Time Delay per Measurement (s) :0.000


BiasVoltage	Total Current_Avg	Total Current_0	Bias Current_Avg	Bias Current_0	Temperature	Air_Temp	Humidity	Dewpoint	
   -5.0000	7.0000E-11	7.0000E-11	-9.534414E-11	-9.534414E-11	   20.1248	   20.9646	   29.7726	    2.8485	
  -10.0000	-8.3000E-11	-8.3000E-11	-1.102945E-10	-1.102945E-10	   20.1248	   20.9705	   29.7726	    2.6429	
  -15.0000	-1.4800E-10	-1.4800E-10	-1.090970E-10	-1.090970E-10	   20.0914	   20.9814	   29.5054	    2.5256	
  -20.0000	-2.8000E-10	-2.8000E-10	-1.162853E-10	-1.162853E-10	   20.0605	   20.9804	   29.2274	    2.3919	
  -25.0000	-2.3000E-10	-2.3000E-10	-1.370150E-10	-1.370150E-10	   19.9961	   20.9804	   28.9867	    2.3919	
  -30.0000	-3.0000E-10	-3.0000E-10	-1.170063E-10	-1.170063E-10	   19.9961	   20.9804	   28.9867	    2.2759	
  -35.0000	-3.1400E-10	-3.1400E-10	-1.202083E-10	-1.202083E-10	   19.9266	   20.9804	   28.7005	    2.2759	
  -40.0000	-2.9700E-10	-2.9700E-10	-1.355193E-10	-1.355193E-10	   19.9266	   20.9747	   28.7005	    2.1320	
  -45.0000	-3.8700E-10	-3.8700E-10	-1.407569E-10	-1.407569E-10	   19.8906	   20.9892	   28.5225	    2.0574	
  -50.0000	-4.4900E-10	-4.4900E-10	-1.580373E-10	-1.580373E-10	   19.8649	   20.9819	   28.3808	    1.9814	
  -55.0000	-4.9700E-10	-4.9700E-10	-1.492672E-10	-1.492672E-10	   19.8674	   20.9819	   28.2631	    1.9814	
  -60.0000	-5.4300E-10	-5.4300E-10	-1.560022E-10	-1.560022E-10	   19.8674	   20.9700	   28.2631	    1.9131	
  -65.0000	-4.9500E-10	-4.9500E-10	-1.750779E-10	-1.750779E-10	   19.8880	   20.9798	   28.1822	    1.8814	
  -70.0000	-6.6200E-10	-6.6200E-10	-1.709672E-10	-1.709672E-10	   19.9241	   20.9816	   28.1173	    1.8509	
  -75.0000	-6.5000E-10	-6.5000E-10	-1.764438E-10	-1.764438E-10	   19.9704	   20.9830	   28.0357	    1.8115	
  -80.0000	-6.2500E-10	-6.2500E-10	-1.787252E-10	-1.787252E-10	   20.0502	   20.9830	   27.9415	    1.8115	
  -85.0000	-7.8300E-10	-7.8300E-10	-1.773452E-10	-1.773452E-10	   20.0502	   20.9904	   27.9415	    1.7708	
  -90.0000	-7.2000E-10	-7.2000E-10	-1.921251E-10	-1.921251E-10	   20.1223	   20.9867	   27.8713	    1.7325	
  -95.0000	-7.9500E-10	-7.9500E-10	-1.842505E-10	-1.842505E-10	   20.1223	   20.9867	   27.8713	    1.7325	
 -100.0000	-8.2300E-10	-8.2300E-10	-1.851070E-10	-1.851070E-10	   20.1712	   20.9983	   27.8055	    1.7095	
 -105.0000	-8.5500E-10	-8.5500E-10	-1.874817E-10	-1.874817E-10	   20.1918	   20.9983	   27.7467	    1.7095	
 -110.0000	-8.6500E-10	-8.6500E-10	-1.878557E-10	-1.878557E-10	   20.1918	   21.0039	   27.7467	    1.6847	
 -115.0000	-7.5100E-10	-7.5100E-10	-1.859711E-10	-1.859711E-10	   20.1737	   20.9977	   27.7002	    1.6560	
 -120.0000	-7.9000E-10	-7.9000E-10	-1.856389E-10	-1.856389E-10	   20.1120	   20.9977	   27.6439	    1.6560	
 -125.0000	-8.0600E-10	-8.0600E-10	-1.863862E-10	-1.863862E-10	   20.0631	   21.0125	   27.6123	    1.6404	
 -130.0000	-9.4400E-10	-9.4400E-10	-1.820730E-10	-1.820730E-10	   20.0631	   20.9914	   27.6123	    1.6063	
 -135.0000	-8.5900E-10	-8.5900E-10	-1.841704E-10	-1.841704E-10	   20.0013	   21.0066	   27.5832	    1.6047	
 -140.0000	-9.3600E-10	-9.3600E-10	-1.746896E-10	-1.746896E-10	   19.9575	   20.9969	   27.5670	    1.5882	
 -145.0000	-9.4500E-10	-9.4500E-10	-1.853719E-10	-1.853719E-10	   19.9241	   20.9928	   27.5395	    1.5708	
 -150.0000	-9.8600E-10	-9.8600E-10	-1.884230E-10	-1.884230E-10	   19.9035	   20.9878	   27.5237	    1.5585	
 -155.0000	-1.2680E-9	-1.2680E-9	-1.887616E-10	-1.887616E-10	   19.9035	   20.9809	   27.5130	    1.5471	
 -160.0000	-1.5470E-9	-1.5470E-9	-1.908859E-10	-1.908859E-10	   19.9164	   20.9747	   27.4972	    1.5338	
 -165.0000	-1.4240E-9	-1.4240E-9	-1.865390E-10	-1.865390E-10	   19.9421	   20.9838	   27.4858	    1.5358	
 -170.0000	-1.3930E-9	-1.3930E-9	-1.913233E-10	-1.913233E-10	   20.0270	   20.9838	   27.4573	    1.5358	
 -175.0000	-1.2700E-9	-1.2700E-9	-1.964328E-10	-1.964328E-10	   20.0270	   20.9833	   27.4573	    1.5210	
 -180.0000	-1.3350E-9	-1.3350E-9	-2.566803E-10	-2.566803E-10	   20.0888	   20.9829	   27.4545	    1.5192	
 -185.0000	-1.4360E-9	-1.4360E-9	-1.783801E-10	-1.783801E-10	   20.1326	   20.9868	   27.4402	    1.5153	
 -190.0000	-1.2650E-9	-1.2650E-9	-1.943404E-10	-1.943404E-10	   20.1686	   20.9943	   27.4282	    1.5156	
 -195.0000	-1.2420E-9	-1.2420E-9	-1.944291E-10	-1.944291E-10	   20.1789	   20.9918	   27.4247	    1.5117	
 -200.0000	-1.2150E-9	-1.2150E-9	-1.896474E-10	-1.896474E-10	   20.1686	   20.9911	   27.4222	    1.5098	
 -205.0000	-1.1600E-9	-1.1600E-9	-1.904712E-10	-1.904712E-10	   20.1351	   20.9943	   27.3953	    1.4989	
 -210.0000	-1.1350E-9	-1.1350E-9	-1.829370E-10	-1.829370E-10	   20.0888	   20.9973	   27.3877	    1.4976	
 -215.0000	-1.1060E-9	-1.1060E-9	-1.805890E-10	-1.805890E-10	   20.0090	   20.9801	   27.3672	    1.4725	
 -220.0000	-1.1820E-9	-1.1820E-9	-1.874677E-10	-1.874677E-10	   19.9575	   20.9801	   27.3672	    1.4725	
 -225.0000	-1.0710E-9	-1.0710E-9	-1.895894E-10	-1.895894E-10	   19.9215	   20.9849	   27.3618	    1.4730	
 -230.0000	-1.0500E-9	-1.0500E-9	-1.854850E-10	-1.854850E-10	   19.9009	   20.9849	   27.3672	    1.4738	
 -235.0000	-1.0900E-9	-1.0900E-9	-1.860444E-10	-1.860444E-10	   19.9009	   20.9700	   27.3491	    1.4638	
 -240.0000	-1.1420E-9	-1.1420E-9	-1.896442E-10	-1.896442E-10	   19.9189	   20.9802	   27.3485	    1.4634	
 -245.0000	-1.1080E-9	-1.1080E-9	-1.877837E-10	-1.877837E-10	   19.9524	   20.9698	   27.3548	    1.4541	
 -250.0000	-1.0750E-9	-1.0750E-9	-1.894690E-10	-1.894690E-10	   19.9987	   20.9742	   27.3491	    1.4611	
 -255.0000	-1.0720E-9	-1.0720E-9	-1.917872E-10	-1.917872E-10	   19.9987	   20.9744	   27.3491	    1.4584	
 -260.0000	-1.0220E-9	-1.0220E-9	-1.958623E-10	-1.958623E-10	   20.0553	   20.9670	   27.3428	    1.4488	
 -265.0000	-1.0060E-9	-1.0060E-9	-1.879050E-10	-1.879050E-10	   20.0991	   20.9861	   27.3340	    1.4607	
 -270.0000	-1.0010E-9	-1.0010E-9	-1.956149E-10	-1.956149E-10	   20.1326	   20.9718	   27.3463	    1.4547	
 -275.0000	-1.0060E-9	-1.0060E-9	-1.924889E-10	-1.924889E-10	   20.1531	   20.9813	   27.3336	    1.4564	
 -280.0000	-9.8200E-10	-9.8200E-10	-1.909516E-10	-1.909516E-10	   20.1557	   20.9785	   27.3425	    1.4585	
 -285.0000	-1.0780E-9	-1.0780E-9	-1.889175E-10	-1.889175E-10	   20.1351	   20.9841	   27.3362	    1.4601	
 -290.0000	-9.4200E-10	-9.4200E-10	-1.865956E-10	-1.865956E-10	   20.0991	   20.9799	   27.3340	    1.4554	
 -295.0000	-1.0360E-9	-1.0360E-9	-1.877235E-10	-1.877235E-10	   20.0579	   20.9788	   27.3384	    1.4567	
 -300.0000	-9.5300E-10	-9.5300E-10	-1.791117E-10	-1.791117E-10	   20.0039	   20.9790	   27.3365	    1.4559	
 -305.0000	-1.0180E-9	-1.0180E-9	-1.854088E-10	-1.854088E-10	   19.9627	   20.9779	   27.3343	    1.4538	
 -310.0000	-9.0100E-10	-9.0100E-10	-1.859937E-10	-1.859937E-10	   19.9215	   20.9859	   27.3213	    1.4540	
 -315.0000	-9.1600E-10	-9.1600E-10	-1.862233E-10	-1.862233E-10	   19.8958	   20.9735	   27.3175	    1.4415	
 -320.0000	-8.9600E-10	-8.9600E-10	-1.869248E-10	-1.869248E-10	   19.8829	   20.9789	   27.3169	    1.4458	
 -325.0000	-9.2900E-10	-9.2900E-10	-1.861467E-10	-1.861467E-10	   19.8906	   20.9777	   27.3216	    1.4472	
 -330.0000	-1.0420E-9	-1.0420E-9	-1.872984E-10	-1.872984E-10	   19.9138	   20.9715	   27.3207	    1.4414	
 -335.0000	-9.4200E-10	-9.4200E-10	-1.890184E-10	-1.890184E-10	   19.9550	   20.9620	   27.3207	    1.4333	
 -340.0000	-1.0250E-9	-1.0250E-9	-1.876231E-10	-1.876231E-10	   20.0064	   20.9784	   27.3178	    1.4459	
 -345.0000	-1.0280E-9	-1.0280E-9	-1.945590E-10	-1.945590E-10	   20.0553	   20.9730	   27.3163	    1.4405	
 -350.0000	-9.9400E-10	-9.9400E-10	-1.939763E-10	-1.939763E-10	   20.1042	   20.9755	   27.3052	    1.4370	
 -355.0000	-1.0290E-9	-1.0290E-9	-1.933305E-10	-1.933305E-10	   20.1377	   20.9751	   27.3061	    1.4371	
 -360.0000	-1.0180E-9	-1.0180E-9	-1.937464E-10	-1.937464E-10	   20.1583	   20.9751	   27.2906	    1.4371	
 -365.0000	-9.9600E-10	-9.9600E-10	-1.904204E-10	-1.904204E-10	   20.1583	   20.9766	   27.2906	    1.4304	
 -370.0000	-9.8700E-10	-9.8700E-10	-1.855574E-10	-1.855574E-10	   20.1145	   20.9883	   27.2821	    1.4361	
 -375.0000	-8.4700E-10	-8.4700E-10	-1.873052E-10	-1.873052E-10	   20.0656	   20.9883	   27.2821	    1.4361	
 -380.0000	-9.6100E-10	-9.6100E-10	-1.857031E-10	-1.857031E-10	   20.0219	   20.9718	   27.2726	    1.4151	
 -385.0000	-9.7500E-10	-9.7500E-10	-1.855772E-10	-1.855772E-10	   19.9730	   20.9718	   27.2707	    1.4172	
 -390.0000	-9.9000E-10	-9.9000E-10	-1.887591E-10	-1.887591E-10	   19.9369	   20.9696	   27.2657	    1.4143	
 -395.0000	-9.9100E-10	-9.9100E-10	-1.832160E-10	-1.832160E-10	   19.9086	   20.9721	   27.2710	    1.4139	
 -400.0000	-9.7500E-10	-9.7500E-10	-1.845037E-10	-1.845037E-10	   19.9009	   20.9743	   27.2849	    1.4185	
 -410.0000	-9.8400E-10	-9.8400E-10	-1.859512E-10	-1.859512E-10	   19.9061	   20.9843	   27.2821	    1.4341	
 -420.0000	-8.7900E-10	-8.7900E-10	-1.857664E-10	-1.857664E-10	   19.9061	   20.9696	   27.2821	    1.4201	
 -430.0000	-9.6800E-10	-9.6800E-10	-1.881948E-10	-1.881948E-10	   19.9344	   20.9657	   27.2954	    1.4236	
 -440.0000	-8.5300E-10	-8.5300E-10	-1.895275E-10	-1.895275E-10	   19.9678	   20.9639	   27.2938	    1.4212	
 -450.0000	-9.2200E-10	-9.2200E-10	-1.847740E-10	-1.847740E-10	   20.0090	   20.9604	   27.2995	    1.4211	
 -460.0000	-9.6500E-10	-9.6500E-10	-1.921196E-10	-1.921196E-10	   20.0502	   20.9733	   27.2966	    1.4307	
 -470.0000	-9.7000E-10	-9.7000E-10	-1.927903E-10	-1.927903E-10	   20.0862	   20.9713	   27.2995	    1.4305	
 -480.0000	-9.4400E-10	-9.4400E-10	-1.891665E-10	-1.891665E-10	   20.1145	   20.9687	   27.2970	    1.4269	
 -490.0000	-9.1900E-10	-9.1900E-10	-1.912932E-10	-1.912932E-10	   20.1274	   20.9786	   27.2891	    1.4313	
 -500.0000	-8.7400E-10	-8.7400E-10	-1.847093E-10	-1.847093E-10	   20.1274	   20.9692	   27.2868	    1.4222	
 -510.0000	-9.4900E-10	-9.4900E-10	-1.878014E-10	-1.878014E-10	   20.1042	   20.9680	   27.2767	    1.4160	
 -520.0000	-9.2200E-10	-9.2200E-10	-1.865533E-10	-1.865533E-10	   20.0734	   20.9752	   27.2830	    1.4254	
 -530.0000	-9.2800E-10	-9.2800E-10	-1.830788E-10	-1.830788E-10	   20.0270	   20.9721	   27.2777	    1.4200	
 -540.0000	-9.6100E-10	-9.6100E-10	-1.851314E-10	-1.851314E-10	   19.9833	   20.9701	   27.2805	    1.4198	
 -550.0000	-8.9800E-10	-8.9800E-10	-1.864213E-10	-1.864213E-10	   19.9421	   20.9594	   27.2770	    1.4088	
 -560.0000	-8.9700E-10	-8.9700E-10	-1.911866E-10	-1.911866E-10	   19.9009	   20.9653	   27.2647	    1.4075	
 -570.0000	-8.7000E-10	-8.7000E-10	-1.850545E-10	-1.850545E-10	   19.8700	   20.9653	   27.2843	    1.4075	
 -580.0000	-8.7300E-10	-8.7300E-10	-1.855559E-10	-1.855559E-10	   19.8700	   20.9539	   27.2843	    1.4078	
 -590.0000	-9.0200E-10	-9.0200E-10	-1.875831E-10	-1.875831E-10	   19.8803	   20.9512	   27.2729	    1.3997	
 -600.0000	-8.0500E-10	-8.0500E-10	-1.912843E-10	-1.912843E-10	   19.8983	   20.9525	   27.2647	    1.3966	
 -610.0000	-8.8000E-10	-8.8000E-10	-1.952167E-10	-1.952167E-10	   19.9369	   20.9544	   27.2745	    1.4032	
 -620.0000	-9.3000E-10	-9.3000E-10	-1.909597E-10	-1.909597E-10	   19.9833	   20.9536	   27.2587	    1.3945	
 -630.0000	-9.1800E-10	-9.1800E-10	-1.942869E-10	-1.942869E-10	   20.0399	   20.9453	   27.2723	    1.3943	
 -640.0000	-8.4300E-10	-8.4300E-10	-1.930233E-10	-1.930233E-10	   20.0888	   20.9549	   27.2546	    1.3935	
 -650.0000	-9.4200E-10	-9.4200E-10	-1.921346E-10	-1.921346E-10	   20.1351	   20.9517	   27.2562	    1.3916	
 -660.0000	-8.3800E-10	-8.3800E-10	-1.913190E-10	-1.913190E-10	   20.1609	   20.9594	   27.2622	    1.4013	
 -670.0000	-9.4000E-10	-9.4000E-10	-1.937063E-10	-1.937063E-10	   20.1686	   20.9578	   27.2517	    1.3945	
 -680.0000	-9.2600E-10	-9.2600E-10	-1.884296E-10	-1.884296E-10	   20.1531	   20.9601	   27.2559	    1.3986	
 -690.0000	-9.1900E-10	-9.1900E-10	-1.870027E-10	-1.870027E-10	   20.1197	   20.9725	   27.2612	    1.4120	
 -700.0000	-8.1300E-10	-8.1300E-10	-1.862809E-10	-1.862809E-10	   20.0785	   20.9611	   27.2634	    1.4033	
 -710.0000	-8.9100E-10	-8.9100E-10	-1.866070E-10	-1.866070E-10	   20.0322	   20.9645	   27.2660	    1.4076	
 -720.0000	-9.2700E-10	-9.2700E-10	-1.852534E-10	-1.852534E-10	   19.9807	   20.9588	   27.2628	    1.4010	
 -730.0000	-9.3200E-10	-9.3200E-10	-1.871875E-10	-1.871875E-10	   19.9112	   20.9588	   27.2546	    1.4010	
 -740.0000	-9.1400E-10	-9.1400E-10	-1.861016E-10	-1.861016E-10	   19.9112	   20.9491	   27.2546	    1.3885	
 -750.0000	-8.2500E-10	-8.2500E-10	-1.878361E-10	-1.878361E-10	   19.8829	   20.9477	   27.2584	    1.3893	
 -760.0000	-8.3600E-10	-8.3600E-10	-1.834578E-10	-1.834578E-10	   19.8906	   20.9477	   27.2584	    1.3893	
 -770.0000	-8.7900E-10	-8.7900E-10	-1.897425E-10	-1.897425E-10	   19.9164	   20.9443	   27.2521	    1.3834	
 -780.0000	-8.9200E-10	-8.9200E-10	-1.892589E-10	-1.892589E-10	   19.9627	   20.9443	   27.2489	    1.3831	
 -790.0000	-8.9100E-10	-8.9100E-10	-1.917067E-10	-1.917067E-10	   20.0116	   20.9398	   27.2495	    1.3777	
 -800.0000	-9.1100E-10	-9.1100E-10	-1.903225E-10	-1.903225E-10	   20.0682	   20.9382	   27.2549	    1.3766	
 -810.0000	-9.0000E-10	-9.0000E-10	-1.915442E-10	-1.915442E-10	   20.0682	   20.9486	   27.2549	    1.3883	
 -820.0000	-8.9500E-10	-8.9500E-10	-1.923213E-10	-1.923213E-10	   20.1274	   20.9404	   27.2473	    1.3774	
 -830.0000	-9.0500E-10	-9.0500E-10	-1.926551E-10	-1.926551E-10	   20.1583	   20.9489	   27.2536	    1.3879	
 -840.0000	-9.0900E-10	-9.0900E-10	-1.926692E-10	-1.926692E-10	   20.1737	   20.9459	   27.2432	    1.3800	
 -850.0000	-9.1400E-10	-9.1400E-10	-1.920486E-10	-1.920486E-10	   20.1686	   20.9503	   27.2448	    1.3845	
 -860.0000	-8.9000E-10	-8.9000E-10	-1.863373E-10	-1.863373E-10	   20.1480	   20.9471	   27.2416	    1.3802	
 -870.0000	-9.1000E-10	-9.1000E-10	-1.886286E-10	-1.886286E-10	   20.1068	   20.9480	   27.2350	    1.3776	
 -880.0000	-9.0300E-10	-9.0300E-10	-1.849579E-10	-1.849579E-10	   20.0631	   20.9497	   27.2347	    1.3789	
 -890.0000	-9.3500E-10	-9.3500E-10	-1.877583E-10	-1.877583E-10	   20.0116	   20.9477	   27.2372	    1.3785	
 -900.0000	-9.1000E-10	-9.1000E-10	-1.839257E-10	-1.839257E-10	   19.9678	   20.9393	   27.2378	    1.3716	
 -910.0000	-8.9900E-10	-8.9900E-10	-1.864742E-10	-1.864742E-10	   19.9086	   20.9393	   27.2391	    1.3716	
 -920.0000	-9.0700E-10	-9.0700E-10	-1.874799E-10	-1.874799E-10	   19.8906	   20.9415	   27.2350	    1.3741	
 -930.0000	-9.1100E-10	-9.1100E-10	-1.859792E-10	-1.859792E-10	   19.8906	   20.9347	   27.2362	    1.3662	
 -940.0000	-9.0800E-10	-9.0800E-10	-1.883526E-10	-1.883526E-10	   19.8906	   20.9323	   27.2362	    1.3648	
 -950.0000	-8.9200E-10	-8.9200E-10	-1.894951E-10	-1.894951E-10	   19.9215	   20.9344	   27.2378	    1.3674	
 -960.0000	-9.0600E-10	-9.0600E-10	-1.894783E-10	-1.894783E-10	   19.9575	   20.9335	   27.2483	    1.3720	
 -970.0000	-8.2800E-10	-8.2800E-10	-1.923854E-10	-1.923854E-10	   20.0090	   20.9298	   27.2483	    1.3688	
 -980.0000	-9.1400E-10	-9.1400E-10	-1.913873E-10	-1.913873E-10	   20.0579	   20.9344	   27.2470	    1.3721	
 -990.0000	-9.3000E-10	-9.3000E-10	-1.965168E-10	-1.965168E-10	   20.1068	   20.9289	   27.2356	    1.3616	
-1000.0000	-7.9200E-10	-7.9200E-10	-1.926573E-10	-1.926573E-10	   20.1403	   20.9381	   27.2476	    1.3756	
